digraph Tree {
node [shape=box] ;
0 [label="dice_num <= 0.4308\ngini = 0.4032\nsamples = 31\nvalue = [36, 14]"] ;
1 [label="gini = 0.0\nsamples = 20\nvalue = [34, 0]"] ;
0 -> 1 [labeldistance=2.5, labelangle=45, headlabel="True"] ;
2 [label="dice_alph_num <= 0.735\ngini = 0.2188\nsamples = 11\nvalue = [2, 14]"] ;
0 -> 2 [labeldistance=2.5, labelangle=-45, headlabel="False"] ;
3 [label="cosine_ws <= 0.3853\ngini = 0.5\nsamples = 3\nvalue = [2, 2]"] ;
2 -> 3 ;
4 [label="gini = 0.0\nsamples = 1\nvalue = [2, 0]"] ;
3 -> 4 ;
5 [label="gini = 0.0\nsamples = 2\nvalue = [0, 2]"] ;
3 -> 5 ;
6 [label="gini = 0.0\nsamples = 8\nvalue = [0, 12]"] ;
2 -> 6 ;
}