digraph Tree {
node [shape=box] ;
0 [label="overlap_coefficient_qg2 <= 0.6878\ngini = 0.3848\nsamples = 32\nvalue = [37, 13]"] ;
1 [label="gini = 0.0\nsamples = 23\nvalue = [36, 0]"] ;
0 -> 1 [labeldistance=2.5, labelangle=45, headlabel="True"] ;
2 [label="overlap_coefficient_num <= 0.9\ngini = 0.1327\nsamples = 9\nvalue = [1, 13]"] ;
0 -> 2 [labeldistance=2.5, labelangle=-45, headlabel="False"] ;
3 [label="jaccard_ws <= 0.2367\ngini = 0.4444\nsamples = 3\nvalue = [1, 2]"] ;
2 -> 3 ;
4 [label="gini = 0.0\nsamples = 1\nvalue = [1, 0]"] ;
3 -> 4 ;
5 [label="gini = 0.0\nsamples = 2\nvalue = [0, 2]"] ;
3 -> 5 ;
6 [label="gini = 0.0\nsamples = 6\nvalue = [0, 11]"] ;
2 -> 6 ;
}